{"learner":{"attributes":{"scikit_learn":"{\"_estimator_type\": \"classifier\"}"},"feature_names":[],"feature_types":[],"gradient_booster":{"model":{"cats":{"enc":[],"feature_segments":[],"sorted_idx":[]},"gbtree_model_param":{"num_parallel_tree":"1","num_trees":"50"},"iteration_indptr":[0,1,2,3,4,5,6,7,8,9,10,11,12,13,14,15,16,17,18,19,20,21,22,23,24,25,26,27,28,29,30,31,32,33,34,35,36,37,38,39,40,41,42,43,44,45,46,47,48,49,50],"tree_info":[0,0,0,0,0,0,0,0,0,0,0,0,0,0,0,0,0,0,0,0,0,0,0,0,0,0,0,0,0,0,0,0,0,0,0,0,0,0,0,0,0,0,0,0,0,0,0,0,0,0],"trees":[{"base_weights":[-9.5860635E-9,-8.920597E-1,3.3566254E-1,-9.2732236E-2,-1.1616913E0,-1.09584786E-1,3.114997E-1,-1.00856185E-1,-1.19936265E-1],"categories":[],"categories_nodes":[],"categories_segments":[],"categories_sizes":[],"default_left":[0,0,0,0,0,0,0,0,0],"id":0,"left_children":[1,3,-1,5,7,-1,-1,-1,-1],"loss_changes":[1.1945559E3,6.782106E1,0E0,2.6271982E2,1.4938354E-1,0E0,0E0,0E0,0E0],"parents":[2147483647,0,0,1,1,3,3,4,4],"right_children":[2,4,-1,6,8,-1,-1,-1,-1],"split_conditions":[8E0,6E0,3.3566254E-1,1.5014789E3,1E1,-1.09584786E-1,3.114997E-1,-1.00856185E-1,-1.19936265E-1],"split_indices":[3,1,0,0,1,0,0,0,0],"split_type":[0,0,0,0,0,0,0,0,0],"sum_hessian":[3.96942E2,3.141796E2,8.2762405E1,7.958687E1,2.3459271E2,6.1129066E1,1.8457802E1,5.180093E1,1.827918E2],"tree_param":{"num_deleted":"0","num_feature":"4","num_nodes":"9","size_leaf_vector":"1"}},{"base_weights":[-7.4561336E-3,-8.4255946E-1,2.6419625E-1,-8.861257E-2,-1.1087904E0,-1.0428299E-1,2.4946058E-1,-9.5565006E-2,-1.14684515E-1],"categories":[],"categories_nodes":[],"categories_segments":[],"categories_sizes":[],"default_left":[0,0,0,0,0,0,0,0,0],"id":1,"left_children":[1,3,-1,5,7,-1,-1,-1,-1],"loss_changes":[8.784379E2,6.0493988E1,0E0,1.9946251E2,2.036438E-1,0E0,0E0,0E0,0E0],"parents":[2147483647,0,0,1,1,3,3,4,4],"right_children":[2,4,-1,6,8,-1,-1,-1,-1],"split_conditions":[8E0,6E0,2.6419625E-1,1.5014789E3,1E1,-1.0428299E-1,2.4946058E-1,-9.5565006E-2,-1.14684515E-1],"split_indices":[3,1,0,0,1,0,0,0,0],"split_type":[0,0,0,0,0,0,0,0,0],"sum_hessian":[3.9502115E2,3.008686E2,9.415254E1,7.8864075E1,2.2200453E2,5.8026077E1,2.0837997E1,4.9384262E1,1.7262027E2],"tree_param":{"num_deleted":"0","num_feature":"4","num_nodes":"9","size_leaf_vector":"1"}},{"base_weights":[-1.1325819E-2,-7.989551E-1,2.2208886E-1,-8.3968766E-2,-1.0607761E0,-1.10665075E-1,1.9170319E-1,-9.065469E-2,-1.0995717E-1],"categories":[],"categories_nodes":[],"categories_segments":[],"categories_sizes":[],"default_left":[0,0,0,0,0,0,0,0,0],"id":2,"left_children":[1,3,-1,5,7,-1,-1,-1,-1],"loss_changes":[6.847555E2,5.380182E1,0E0,1.6224904E2,2.634735E-1,0E0,0E0,0E0,0E0],"parents":[2147483647,0,0,1,1,3,3,4,4],"right_children":[2,4,-1,6,8,-1,-1,-1,-1],"split_conditions":[8E0,6E0,2.2208886E-1,1.3848608E3,1E1,-1.10665075E-1,1.9170319E-1,-9.065469E-2,-1.0995717E-1],"split_indices":[3,1,0,0,1,0,0,0,0],"split_type":[0,0,0,0,0,0,0,0,0],"sum_hessian":[3.874641E2,2.8688113E2,1.00582954E2,7.724891E1,2.0963223E2,5.1417255E1,2.5831652E1,4.703102E1,1.6260123E2],"tree_param":{"num_deleted":"0","num_feature":"4","num_nodes":"9","size_leaf_vector":"1"}},{"base_weights":[-1.3642908E-2,-7.595857E-1,1.939526E-1,-8.011991E-2,-1.0165567E0,-1.0633524E-1,1.6633128E-1,-8.60494E-2,-1.0563674E-1],"categories":[],"categories_nodes":[],"categories_segments":[],"categories_sizes":[],"default_left":[0,0,0,0,0,0,0,0,0],"id":3,"left_children":[1,3,-1,5,7,-1,-1,-1,-1],"loss_changes":[5.514543E2,4.7739044E1,0E0,1.3246324E2,3.2513428E-1,0E0,0E0,0E0,0E0],"parents":[2147483647,0,0,1,1,3,3,4,4],"right_children":[2,4,-1,6,8,-1,-1,-1,-1],"split_conditions":[8E0,6E0,1.939526E-1,1.3848608E3,1E1,-1.0633524E-1,1.6633128E-1,-8.60494E-2,-1.0563674E-1],"split_indices":[3,1,0,0,1,0,0,0,0],"split_type":[0,0,0,0,0,0,0,0,0],"sum_hessian":[3.7648734E2,2.7288126E2,1.0360609E2,7.524232E1,1.9763893E2,4.835944E1,2.6882877E1,4.4765926E1,1.5287302E2],"tree_param":{"num_deleted":"0","num_feature":"4","num_nodes":"9","size_leaf_vector":"1"}},{"base_weights":[-1.4987106E-2,-7.2368425E-1,1.7364472E-1,-7.643727E-2,-9.7529274E-1,-9.19326E-2,1.6882935E-1,-8.16918E-2,-1.0163268E-1],"categories":[],"categories_nodes":[],"categories_segments":[],"categories_sizes":[],"default_left":[0,0,0,0,0,0,0,0,0],"id":4,"left_children":[1,3,-1,5,7,-1,-1,-1,-1],"loss_changes":[4.5333688E2,4.2267548E1,0E0,1.11424355E2,3.8591003E-1,0E0,0E0,0E0,0E0],"parents":[2147483647,0,0,1,1,3,3,4,4],"right_children":[2,4,-1,6,8,-1,-1,-1,-1],"split_conditions":[8E0,6E0,1.7364472E-1,1.5014789E3,1E1,-9.19326E-2,1.6882935E-1,-8.16918E-2,-1.0163268E-1],"split_indices":[3,1,0,0,1,0,0,0,0],"split_type":[0,0,0,0,0,0,0,0,0],"sum_hessian":[3.6321765E2,2.5900226E2,1.04215385E2,7.286511E1,1.8613713E2,4.963635E1,2.3228765E1,4.260555E1,1.4353159E2],"tree_param":{"num_deleted":"0","num_feature":"4","num_nodes":"9","size_leaf_vector":"1"}},{"base_weights":[-1.5545744E-2,-6.905595E-1,1.5818016E-1,-7.209534E-2,-9.3633133E-1,-9.8972686E-2,1.3564879E-1,-7.753873E-2,-9.787416E-2],"categories":[],"categories_nodes":[],"categories_segments":[],"categories_sizes":[],"default_left":[0,0,0,0,0,0,0,0,0],"id":5,"left_children":[1,3,-1,5,7,-1,-1,-1,-1],"loss_changes":[3.7787552E2,3.737606E1,0E0,9.4596954E1,4.4377136E-1,0E0,0E0,0E0,0E0],"parents":[2147483647,0,0,1,1,3,3,4,4],"right_children":[2,4,-1,6,8,-1,-1,-1,-1],"split_conditions":[8E0,6E0,1.5818016E-1,1.3848608E3,1E1,-9.8972686E-2,1.3564879E-1,-7.753873E-2,-9.787416E-2],"split_indices":[3,1,0,0,1,0,0,0,0],"split_type":[0,0,0,0,0,0,0,0,0],"sum_hessian":[3.4844556E2,2.453375E2,1.0310807E2,7.0136986E1,1.752005E2,4.2892654E1,2.7244331E1,4.0560215E1,1.3464029E2],"tree_param":{"num_deleted":"0","num_feature":"4","num_nodes":"9","size_leaf_vector":"1"}},{"base_weights":[-1.5930627E-2,-6.5951025E-1,1.4591856E-1,-6.886103E-2,-8.991615E-1,-8.473977E-2,1.4160763E-1,-7.3557876E-2,-9.430521E-2],"categories":[],"categories_nodes":[],"categories_segments":[],"categories_sizes":[],"default_left":[0,0,0,0,0,0,0,0,0],"id":6,"left_children":[1,3,-1,5,7,-1,-1,-1,-1],"loss_changes":[3.181277E2,3.2960457E1,0E0,8.0296875E1,4.972229E-1,0E0,0E0,0E0,0E0],"parents":[2147483647,0,0,1,1,3,3,4,4],"right_children":[2,4,-1,6,8,-1,-1,-1,-1],"split_conditions":[8E0,6E0,1.4591856E-1,1.5014789E3,1E1,-8.473977E-2,1.4160763E-1,-7.3557876E-2,-9.430521E-2],"split_indices":[3,1,0,0,1,0,0,0,0],"split_type":[0,0,0,0,0,0,0,0,0],"sum_hessian":[3.3308517E2,2.3229144E2,1.0079372E2,6.7418304E1,1.6487314E2,4.4511005E1,2.29073E1,3.86355E1,1.2623764E2],"tree_param":{"num_deleted":"0","num_feature":"4","num_nodes":"9","size_leaf_vector":"1"}},{"base_weights":[-1.5848108E-2,-6.301906E-1,1.358781E-1,-6.4872E-2,-8.6338395E-1,-9.239704E-2,1.15267746E-1,-9.6629255E-2,-7.817242E-2],"categories":[],"categories_nodes":[],"categories_segments":[],"categories_sizes":[],"default_left":[0,0,0,0,0,0,0,0,0],"id":7,"left_children":[1,3,-1,5,7,-1,-1,-1,-1],"loss_changes":[2.6971417E2,2.904039E1,0E0,6.961685E1,5.570526E-1,0E0,0E0,0E0,0E0],"parents":[2147483647,0,0,1,1,3,3,4,4],"right_children":[2,4,-1,6,8,-1,-1,-1,-1],"split_conditions":[8E0,6E0,1.358781E-1,1.3848608E3,8.203999E2,-9.239704E-2,1.15267746E-1,-9.6629255E-2,-7.817242E-2],"split_indices":[3,1,0,0,0,0,0,0,0],"split_type":[0,0,0,0,0,0,0,0,0],"sum_hessian":[3.17366E2,2.1971404E2,9.765197E1,6.453743E1,1.551766E2,3.7980003E1,2.6557426E1,6.3862755E1,9.131385E1],"tree_param":{"num_deleted":"0","num_feature":"4","num_nodes":"9","size_leaf_vector":"1"}},{"base_weights":[-1.5841315E-2,-6.021799E-1,1.2743273E-1,-8.2372755E-1,-4.8878238E-2,-9.43444E-2,-6.7220084E-2,1.2254559E-1,-7.830558E-2],"categories":[],"categories_nodes":[],"categories_segments":[],"categories_sizes":[],"default_left":[0,0,0,0,0,0,0,0,0],"id":8,"left_children":[1,3,-1,5,7,-1,-1,-1,-1],"loss_changes":[2.2990903E2,2.5572014E1,0E0,2.071167E0,5.7846703E1,0E0,0E0,0E0,0E0],"parents":[2147483647,0,0,1,1,3,3,4,4],"right_children":[2,4,-1,6,8,-1,-1,-1,-1],"split_conditions":[8E0,1.5208193E3,1.2743273E-1,8.203999E2,6E0,-9.43444E-2,-6.7220084E-2,1.2254559E-1,-7.830558E-2],"split_indices":[3,0,0,0,1,0,0,0,0],"split_type":[0,0,0,0,0,0,0,0,0],"sum_hessian":[3.0190686E2,2.0793886E2,9.396802E1,1.4813524E2,5.980362E1,7.98344E1,6.8300835E1,2.1615606E1,3.8188015E1],"tree_param":{"num_deleted":"0","num_feature":"4","num_nodes":"9","size_leaf_vector":"1"}},{"base_weights":[-1.547526E-2,-5.7517254E-1,1.2016327E0,-5.5813156E-2,-7.9516226E-1,1.2510072E-1,9.289043E-1,-8.615953E-2,1.0018313E-1,-6.0702838E-2,-8.4775314E-2,9.8995246E-2,2.8343678E-2],"categories":[],"categories_nodes":[],"categories_segments":[],"categories_sizes":[],"default_left":[0,0,0,0,0,0,0,0,0,0,0,0,0],"id":9,"left_children":[1,3,5,7,9,-1,11,-1,-1,-1,-1,-1,-1],"loss_changes":[1.9669012E2,2.2550957E1,6.272888E-2,5.192831E1,8.591385E-1,0E0,4.218521E-1,0E0,0E0,0E0,0E0,0E0,0E0],"parents":[2147483647,0,0,1,1,2,2,3,3,4,4,6,6],"right_children":[2,4,6,8,10,-1,12,-1,-1,-1,-1,-1,-1],"split_conditions":[8E0,6E0,2E1,1.3848608E3,1E1,1.2510072E-1,1.784201E3,-8.615953E-2,1.0018313E-1,-6.0702838E-2,-8.4775314E-2,9.8995246E-2,2.8343678E-2],"split_indices":[3,1,1,0,1,0,0,0,0,0,0,0,0],"split_type":[0,0,0,0,0,0,0,0,0,0,0,0,0],"sum_hessian":[2.8672098E2,1.9676456E2,8.9956406E1,5.891937E1,1.378452E2,7.313003E1,1.6826378E1,3.3546688E1,2.5372679E1,3.2855015E1,1.0499018E2,1.4884873E1,1.9415052E0],"tree_param":{"num_deleted":"0","num_feature":"4","num_nodes":"13","size_leaf_vector":"1"}},{"base_weights":[-1.4722721E-2,-5.4918766E-1,1.1386329E0,-7.585749E-1,-3.5076886E-2,1.1934171E-1,8.945407E-1,-8.866292E-2,-6.0141224E-2,1.0853912E-1,-7.1317434E-2,5.867958E-2,1.1010941E-1],"categories":[],"categories_nodes":[],"categories_segments":[],"categories_sizes":[],"default_left":[0,0,0,0,0,0,0,0,0,0,0,0,0],"id":10,"left_children":[1,3,5,7,9,-1,11,-1,-1,-1,-1,-1,-1],"loss_changes":[1.6901671E2,2.0140694E1,9.353638E-2,2.144989E0,4.2765785E1,0E0,6.1939335E-1,0E0,0E0,0E0,0E0,0E0,0E0],"parents":[2147483647,0,0,1,1,2,2,3,3,4,4,6,6],"right_children":[2,4,6,8,10,-1,12,-1,-1,-1,-1,-1,-1],"split_conditions":[8E0,1.5208193E3,1.9E1,8.203999E2,6E0,1.1934171E-1,9E0,-8.866292E-2,-6.0141224E-2,1.0853912E-1,-7.1317434E-2,5.867958E-2,1.1010941E-1],"split_indices":[3,0,1,0,1,0,3,0,0,0,0,0,0],"split_type":[0,0,0,0,0,0,0,0,0,0,0,0,0],"sum_hessian":[2.7217276E2,1.8634454E2,8.5828224E1,1.3207677E2,5.4267776E1,6.691955E1,1.8908678E1,7.022047E1,6.1856304E1,2.0233652E1,3.4034126E1,9.136723E0,9.7719555E0],"tree_param":{"num_deleted":"0","num_feature":"4","num_nodes":"13","size_leaf_vector":"1"}},{"base_weights":[-1.35442475E-2,-5.238396E-1,1.0826299E0,-8.333972E-2,-7.4896026E-1,1.1313011E-1,8.2172006E-1,-7.946344E-2,7.124507E-2,-7.9374075E-2,-4.550537E-2,5.059885E-2,1.0147094E-1],"categories":[],"categories_nodes":[],"categories_segments":[],"categories_sizes":[],"default_left":[0,0,0,0,0,0,0,0,0,0,0,0,0],"id":11,"left_children":[1,3,5,7,9,-1,11,-1,-1,-1,-1,-1,-1],"loss_changes":[1.4557713E2,1.7545837E1,1.2023926E-1,3.5196266E1,1.1837387E0,0E0,5.012083E-1,0E0,0E0,0E0,0E0,0E0,0E0],"parents":[2147483647,0,0,1,1,2,2,3,3,4,4,6,6],"right_children":[2,4,6,8,10,-1,12,-1,-1,-1,-1,-1,-1],"split_conditions":[8E0,7E0,2E1,1.295302E3,1.737941E3,1.1313011E-1,9E0,-7.946344E-2,7.124507E-2,-7.9374075E-2,-4.550537E-2,5.059885E-2,1.0147094E-1],"split_indices":[3,1,1,0,0,0,3,0,0,0,0,0,0],"split_type":[0,0,0,0,0,0,0,0,0,0,0,0,0],"sum_hessian":[2.5823694E2,1.7656418E2,8.1672745E1,6.0179497E1,1.1638469E2,6.602095E1,1.56517935E1,3.1777517E1,2.840198E1,9.952076E1,1.6863926E1,7.311683E0,8.34011E0],"tree_param":{"num_deleted":"0","num_feature":"4","num_nodes":"13","size_leaf_vector":"1"}},{"base_weights":[-1.26615E-2,-4.9812767E-1,1.0317796E0,-6.946995E-1,-2.7492026E-2,1.0866445E-1,7.956137E-1,-8.305035E-2,-5.3437967E-2,9.82366E-2,-6.551111E-2,5.0438907E-2,1.00017965E-1],"categories":[],"categories_nodes":[],"categories_segments":[],"categories_sizes":[],"default_left":[0,0,0,0,0,0,0,0,0,0,0,0,0],"id":12,"left_children":[1,3,5,7,9,-1,11,-1,-1,-1,-1,-1,-1],"loss_changes":[1.25504425E2,1.5612228E1,1.5320587E-1,2.150154E0,3.2854008E1,0E0,6.0012245E-1,0E0,0E0,0E0,0E0,0E0,0E0],"parents":[2147483647,0,0,1,1,2,2,3,3,4,4,6,6],"right_children":[2,4,6,8,10,-1,12,-1,-1,-1,-1,-1,-1],"split_conditions":[8E0,1.5208193E3,1.9E1,8.203999E2,6E0,1.0866445E-1,9E0,-8.305035E-2,-5.3437967E-2,9.82366E-2,-6.551111E-2,5.0438907E-2,1.00017965E-1],"split_indices":[3,0,1,0,1,0,3,0,0,0,0,0,0],"split_type":[0,0,0,0,0,0,0,0,0,0,0,0,0],"sum_hessian":[2.4550967E2,1.6796228E2,7.754739E1,1.1814161E2,4.9820663E1,6.0005917E1,1.7541473E1,6.169806E1,5.6443554E1,1.887883E1,3.0941833E1,8.667658E0,8.873816E0],"tree_param":{"num_deleted":"0","num_feature":"4","num_nodes":"13","size_leaf_vector":"1"}},{"base_weights":[-1.1445113E-2,-4.7407594E-1,9.850501E-1,-6.91428E-2,-6.866897E-1,1.0403652E0,7.5186497E-1,-7.356985E-2,6.269952E-2,-7.345571E-2,-3.8451824E-2,8.5835695E-2,1.13589965E-1,4.695515E-2,9.554889E-2],"categories":[],"categories_nodes":[],"categories_segments":[],"categories_sizes":[],"default_left":[0,0,0,0,0,0,0,0,0,0,0,0,0,0,0],"id":13,"left_children":[1,3,5,7,9,11,13,-1,-1,-1,-1,-1,-1,-1,-1],"loss_changes":[1.0835158E2,1.37702675E1,1.7903137E-1,2.6617113E1,1.238121E0,2.7030945E-2,5.8003616E-1,0E0,0E0,0E0,0E0,0E0,0E0,0E0,0E0],"parents":[2147483647,0,0,1,1,2,2,3,3,4,4,5,5,6,6],"right_children":[2,4,6,8,10,12,14,-1,-1,-1,-1,-1,-1,-1,-1],"split_conditions":[8E0,7E0,1.9E1,1.295302E3,1.737941E3,8E0,9E0,-7.356985E-2,6.269952E-2,-7.345571E-2,-3.8451824E-2,8.5835695E-2,1.13589965E-1,4.695515E-2,9.554889E-2],"split_indices":[3,1,1,0,0,1,3,0,0,0,0,0,0,0,0],"split_type":[0,0,0,0,0,0,0,0,0,0,0,0,0,0,0],"sum_hessian":[2.330182E2,1.5949544E2,7.3522766E1,5.536855E1,1.04126884E2,5.662814E1,1.6894629E1,2.8256233E1,2.7112318E1,8.86524E1,1.5474481E1,2.2929186E1,3.3698956E1,8.464724E0,8.429905E0],"tree_param":{"num_deleted":"0","num_feature":"4","num_nodes":"15","size_leaf_vector":"1"}},{"base_weights":[-1.0089671E-2,-4.4961426E-1,9.4213724E-1,-6.54953E-2,-6.5539086E-1,9.755298E-2,6.005057E-1,-5.556799E-2,7.6896474E-2,-7.037425E-2,-3.5902053E-2,7.5262696E-2,-2.4240516E-2],"categories":[],"categories_nodes":[],"categories_segments":[],"categories_sizes":[],"default_left":[0,0,0,0,0,0,0,0,0,0,0,0,0],"id":14,"left_children":[1,3,5,7,9,-1,11,-1,-1,-1,-1,-1,-1],"loss_changes":[9.368128E1,1.2060987E1,2.2063828E-1,2.273168E1,1.1746445E0,0E0,1.3230946E0,0E0,0E0,0E0,0E0,0E0,0E0],"parents":[2147483647,0,0,1,1,2,2,3,3,4,4,6,6],"right_children":[2,4,6,8,10,-1,12,-1,-1,-1,-1,-1,-1],"split_conditions":[8E0,7E0,2.2E1,1.5014789E3,1.737941E3,9.755298E-2,1.784201E3,-5.556799E-2,7.6896474E-2,-7.037425E-2,-3.5902053E-2,7.5262696E-2,-2.4240516E-2],"split_indices":[3,1,1,0,0,0,0,0,0,0,0,0,0],"split_type":[0,0,0,0,0,0,0,0,0,0,0,0,0],"sum_hessian":[2.2182352E2,1.5213127E2,6.969223E1,5.3528683E1,9.860259E1,6.1796486E1,7.8957486E0,3.3930855E1,1.9597828E1,8.359059E1,1.5012004E1,6.7793756E0,1.1163732E0],"tree_param":{"num_deleted":"0","num_feature":"4","num_nodes":"13","size_leaf_vector":"1"}},{"base_weights":[-9.280536E-3,-4.2594826E-1,9.0029365E-1,-6.7175186E-1,-1.2835328E-1,9.5898616E-1,6.6408724E-1,-7.513992E-2,-4.9964644E-2,5.885544E-2,-5.6490686E-2,7.659991E-2,1.0633268E-1,3.8073305E-2,8.803453E-2],"categories":[],"categories_nodes":[],"categories_segments":[],"categories_sizes":[],"default_left":[0,0,0,0,0,0,0,0,0,0,0,0,0,0,0],"id":15,"left_children":[1,3,5,7,9,11,13,-1,-1,-1,-1,-1,-1,-1,-1],"loss_changes":[8.075376E1,1.0602331E1,2.9125595E-1,7.182579E-1,2.1405327E1,2.1989822E-1,6.80552E-1,0E0,0E0,0E0,0E0,0E0,0E0,0E0,0E0],"parents":[2147483647,0,0,1,1,2,2,3,3,4,4,5,5,6,6],"right_children":[2,4,6,8,10,12,14,-1,-1,-1,-1,-1,-1,-1,-1],"split_conditions":[8E0,1.2368912E3,1.9E1,8.203999E2,6E0,8E0,9E0,-7.513992E-2,-4.9964644E-2,5.885544E-2,-5.6490686E-2,7.659991E-2,1.0633268E-1,3.8073305E-2,8.803453E-2],"split_indices":[3,0,1,0,1,1,3,0,0,0,0,0,0,0,0],"split_type":[0,0,0,0,0,0,0,0,0,0,0,0,0,0,0],"sum_hessian":[2.1106427E2,1.451185E2,6.594577E1,7.878634E1,6.633216E1,5.0369915E1,1.5575852E1,5.1559566E1,2.7226768E1,2.4973131E1,4.135903E1,2.0603426E1,2.9766489E1,7.9369435E0,7.6389084E0],"tree_param":{"num_deleted":"0","num_feature":"4","num_nodes":"15","size_leaf_vector":"1"}},{"base_weights":[-7.976542E-3,-4.029004E-1,8.6195755E-1,-6.3246775E-1,-1.085613E-1,9.1553783E-1,6.0581654E-1,-7.228755E-2,-4.61833E-2,5.5133052E-2,-5.3169142E-2,7.045915E-2,9.998112E-2,6.7739874E-2,3.1828266E-3],"categories":[],"categories_nodes":[],"categories_segments":[],"categories_sizes":[],"default_left":[0,0,0,0,0,0,0,0,0,0,0,0,0,0,0],"id":16,"left_children":[1,3,5,7,9,11,13,-1,-1,-1,-1,-1,-1,-1,-1],"loss_changes":[6.984296E1,9.378096E0,3.1651306E-1,8.7465096E-1,1.7735401E1,1.9399643E-1,5.510807E-1,0E0,0E0,0E0,0E0,0E0,0E0,0E0,0E0],"parents":[2147483647,0,0,1,1,2,2,3,3,4,4,5,5,6,6],"right_children":[2,4,6,8,10,12,14,-1,-1,-1,-1,-1,-1,-1,-1],"split_conditions":[8E0,1.267323E3,2E1,8.203999E2,6E0,7E0,1.784201E3,-7.228755E-2,-4.61833E-2,5.5133052E-2,-5.3169142E-2,7.045915E-2,9.998112E-2,6.7739874E-2,3.1828266E-3],"split_indices":[3,0,1,0,1,1,0,0,0,0,0,0,0,0,0],"split_type":[0,0,0,0,0,0,0,0,0,0,0,0,0,0,0],"sum_hessian":[2.0128238E2,1.3880565E2,6.2476727E1,7.733787E1,6.146779E1,4.9539555E1,1.293717E1,4.843765E1,2.8900219E1,2.389672E1,3.7571068E1,1.681368E1,3.2725872E1,1.1342485E1,1.5946848E0],"tree_param":{"num_deleted":"0","num_feature":"4","num_nodes":"15","size_leaf_vector":"1"}},{"base_weights":[-6.9595487E-3,-3.8044998E-1,8.246663E-1,-5.463025E-1,-2.9284563E-3,8.863629E-1,5.886287E-1,-6.9434464E-2,-3.8966652E-2,7.941773E-2,-5.1985975E-2,6.885999E-2,9.97843E-2,3.05443E-2,8.1686944E-2],"categories":[],"categories_nodes":[],"categories_segments":[],"categories_sizes":[],"default_left":[0,0,0,0,0,0,0,0,0,0,0,0,0,0,0],"id":17,"left_children":[1,3,5,7,9,11,13,-1,-1,-1,-1,-1,-1,-1,-1],"loss_changes":[6.0313198E1,8.387711E0,3.5469055E-1,1.8879623E0,1.7678473E1,3.2118225E-1,7.489791E-1,0E0,0E0,0E0,0E0,0E0,0E0,0E0,0E0],"parents":[2147483647,0,0,1,1,2,2,3,3,4,4,5,5,6,6],"right_children":[2,4,6,8,10,12,14,-1,-1,-1,-1,-1,-1,-1,-1],"split_conditions":[8E0,1.5208193E3,1.9E1,8.203999E2,6E0,8E0,9E0,-6.9434464E-2,-3.8966652E-2,7.941773E-2,-5.1985975E-2,6.885999E-2,9.97843E-2,3.05443E-2,8.1686944E-2],"split_indices":[3,0,1,0,1,1,3,0,0,0,0,0,0,0,0],"split_type":[0,0,0,0,0,0,0,0,0,0,0,0,0,0,0],"sum_hessian":[1.9217006E2,1.3298697E2,5.9183086E1,9.208512E1,4.090185E1,4.4734898E1,1.444819E1,4.55764E1,4.650872E1,1.5879462E1,2.502239E1,1.8713852E1,2.6021048E1,7.4914966E0,6.9566927E0],"tree_param":{"num_deleted":"0","num_feature":"4","num_nodes":"15","size_leaf_vector":"1"}},{"base_weights":[-5.396602E-3,-3.5927638E-1,7.893352E-1,-5.837627E-1,-1.01595186E-1,8.520507E-1,5.556658E-1,-4.9182806E-2,-8.061408E-2,4.7493074E-2,-4.7694635E-2,6.525348E-2,9.672957E-2,2.8301865E-2,7.826398E-2],"categories":[],"categories_nodes":[],"categories_segments":[],"categories_sizes":[],"default_left":[0,0,0,0,0,0,0,0,0,0,0,0,0,0,0],"id":18,"left_children":[1,3,5,7,9,11,13,-1,-1,-1,-1,-1,-1,-1,-1],"loss_changes":[5.213351E1,7.3593445E0,3.635254E-1,1.0004368E0,1.340966E1,3.6104202E-1,7.04288E-1,0E0,0E0,0E0,0E0,0E0,0E0,0E0,0E0],"parents":[2147483647,0,0,1,1,2,2,3,3,4,4,5,5,6,6],"right_children":[2,4,6,8,10,12,14,-1,-1,-1,-1,-1,-1,-1,-1],"split_conditions":[8E0,1.2368912E3,1.9E1,3E0,6E0,8E0,9E0,-4.9182806E-2,-8.061408E-2,4.7493074E-2,-4.7694635E-2,6.525348E-2,9.672957E-2,2.8301865E-2,7.826398E-2],"split_indices":[3,0,1,2,1,1,3,0,0,0,0,0,0,0,0],"split_type":[0,0,0,0,0,0,0,0,0,0,0,0,0,0,0],"sum_hessian":[1.8336215E2,1.2724858E2,5.6113575E1,6.732823E1,5.9920353E1,4.2153442E1,1.3960133E1,4.9907394E1,1.7420834E1,2.3523619E1,3.6396732E1,1.7873093E1,2.4280348E1,7.362739E0,6.5973935E0],"tree_param":{"num_deleted":"0","num_feature":"4","num_nodes":"15","size_leaf_vector":"1"}},{"base_weights":[-4.321431E-3,-3.3810645E-1,7.551426E-1,-4.7212237E-1,6.79096E-2,8.1226265E-1,5.033855E-1,-6.4131856E-2,-3.2680783E-2,6.805032E-2,-3.2891538E-2,5.954131E-2,9.049427E-2,5.790444E-2,-3.7328822E-3],"categories":[],"categories_nodes":[],"categories_segments":[],"categories_sizes":[],"default_left":[0,0,0,0,0,0,0,0,0,0,0,0,0,0,0],"id":19,"left_children":[1,3,5,7,9,11,13,-1,-1,-1,-1,-1,-1,-1,-1],"loss_changes":[4.50365E1,6.747073E0,3.7117004E-1,2.0747414E0,7.8811936E0,3.1700516E-1,5.3957367E-1,0E0,0E0,0E0,0E0,0E0,0E0,0E0,0E0],"parents":[2147483647,0,0,1,1,2,2,3,3,4,4,5,5,6,6],"right_children":[2,4,6,8,10,12,14,-1,-1,-1,-1,-1,-1,-1,-1],"split_conditions":[8E0,1.610173E3,2E1,8.203999E2,6E0,7E0,1.784201E3,-6.4131856E-2,-3.2680783E-2,6.805032E-2,-3.2891538E-2,5.954131E-2,9.049427E-2,5.790444E-2,-3.7328822E-3],"split_indices":[3,0,1,0,1,1,0,0,0,0,0,0,0,0,0],"split_type":[0,0,0,0,0,0,0,0,0,0,0,0,0,0,0],"sum_hessian":[1.7565318E2,1.224091E2,5.3244083E1,9.190929E1,3.0499817E1,4.1583107E1,1.1660975E1,4.0888126E1,5.102116E1,1.1709128E1,1.879069E1,1.4673929E1,2.6909178E1,1.0167421E1,1.4935536E0],"tree_param":{"num_deleted":"0","num_feature":"4","num_nodes":"15","size_leaf_vector":"1"}},{"base_weights":[-3.0646063E-3,-3.1661516E-1,7.211824E-1,-8.114332E-2,-5.441192E-1,7.9499644E-1,5.0736445E-1,-3.7762698E-2,4.8665386E-2,-3.705392E-2,-5.918942E-2,5.8285963E-2,9.376262E-2,2.7933603E-2,7.590575E-2],"categories":[],"categories_nodes":[],"categories_segments":[],"categories_sizes":[],"default_left":[0,0,0,0,0,0,0,0,0,0,0,0,0,0,0],"id":20,"left_children":[1,3,5,7,9,11,13,-1,-1,-1,-1,-1,-1,-1,-1],"loss_changes":[3.87455E1,6.334139E0,4.1025543E-1,1.0230821E1,2.814026E-1,5.5961037E-1,7.0586586E-1,0E0,0E0,0E0,0E0,0E0,0E0,0E0,0E0],"parents":[2147483647,0,0,1,1,2,2,3,3,4,4,5,5,6,6],"right_children":[2,4,6,8,10,12,14,-1,-1,-1,-1,-1,-1,-1,-1],"split_conditions":[8E0,1E1,1.8E1,1.5105194E3,1E0,8E0,1.1223151E3,-3.7762698E-2,4.8665386E-2,-3.705392E-2,-5.918942E-2,5.8285963E-2,9.376262E-2,2.7933603E-2,7.590575E-2],"split_indices":[3,1,1,0,2,1,0,0,0,0,0,0,0,0,0],"split_type":[0,0,0,0,0,0,0,0,0,0,0,0,0,0,0],"sum_hessian":[1.6861331E2,1.18062836E2,5.0550484E1,5.8682144E1,5.938069E1,3.5557323E1,1.4993162E1,3.87718E1,1.9910341E1,1.4705913E1,4.4674778E1,1.6340385E1,1.9216936E1,8.97334E0,6.0198216E0],"tree_param":{"num_deleted":"0","num_feature":"4","num_nodes":"15","size_leaf_vector":"1"}},{"base_weights":[-1.7951768E-3,-2.964949E-1,6.8862206E-1,-7.48087E-2,-5.155032E-1,7.6350105E-1,4.776758E-1,-3.5135433E-2,4.452155E-2,-6.393605E-2,-4.3028217E-2,5.5030484E-2,9.112018E-2,2.5874985E-2,7.258335E-2],"categories":[],"categories_nodes":[],"categories_segments":[],"categories_sizes":[],"default_left":[0,0,0,0,0,0,0,0,0,0,0,0,0,0,0],"id":21,"left_children":[1,3,5,7,9,11,13,-1,-1,-1,-1,-1,-1,-1,-1],"loss_changes":[3.339408E1,5.545948E0,4.108429E-1,8.545171E0,3.3384037E-1,5.870037E-1,6.5612674E-1,0E0,0E0,0E0,0E0,0E0,0E0,0E0,0E0],"parents":[2147483647,0,0,1,1,2,2,3,3,4,4,5,5,6,6],"right_children":[2,4,6,8,10,12,14,-1,-1,-1,-1,-1,-1,-1,-1],"split_conditions":[8E0,1E1,1.8E1,1.5105194E3,8.203999E2,8E0,1.1223151E3,-3.5135433E-2,4.452155E-2,-6.393605E-2,-4.3028217E-2,5.5030484E-2,9.112018E-2,2.5874985E-2,7.258335E-2],"split_indices":[3,1,1,0,0,1,0,0,0,0,0,0,0,0,0],"split_type":[0,0,0,0,0,0,0,0,0,0,0,0,0,0,0],"sum_hessian":[1.6212282E2,1.1402332E2,4.8099495E1,5.7331944E1,5.669138E1,3.3565453E1,1.4534042E1,3.7639725E1,1.9692219E1,2.045722E1,3.6234158E1,1.567109E1,1.7894361E1,8.807076E0,5.7269654E0],"tree_param":{"num_deleted":"0","num_feature":"4","num_nodes":"15","size_leaf_vector":"1"}},{"base_weights":[-6.987842E-4,-2.7721545E-1,6.5687716E-1,-6.884744E-2,-4.875906E-1,6.981945E-1,3.243421E-1,-3.2630138E-2,4.0682536E-2,-3.883043E-2,-5.901372E-2,2.4039285E-2,7.218225E-2,4.9067795E-2,-3.0305553E-2],"categories":[],"categories_nodes":[],"categories_segments":[],"categories_sizes":[],"default_left":[0,0,0,0,0,0,0,0,0,0,0,0,0,0,0],"id":22,"left_children":[1,3,5,7,9,11,13,-1,-1,-1,-1,-1,-1,-1,-1],"loss_changes":[2.8762949E1,4.84779E0,4.1692924E-1,7.1265965E0,3.3334255E-1,2.6764488E-1,8.8368386E-1,0E0,0E0,0E0,0E0,0E0,0E0,0E0,0E0],"parents":[2147483647,0,0,1,1,2,2,3,3,4,4,5,5,6,6],"right_children":[2,4,6,8,10,12,14,-1,-1,-1,-1,-1,-1,-1,-1],"split_conditions":[8E0,1E1,2.2E1,1.5105194E3,1.8E1,9.385438E1,1.7474806E3,-3.2630138E-2,4.0682536E-2,-3.883043E-2,-5.901372E-2,2.4039285E-2,7.218225E-2,4.9067795E-2,-3.0305553E-2],"split_indices":[3,1,1,0,1,0,0,0,0,0,0,0,0,0,0],"split_type":[0,0,0,0,0,0,0,0,0,0,0,0,0,0,0],"sum_hessian":[1.5618385E2,1.10356415E2,4.5827446E1,5.6109505E1,5.424691E1,3.978461E1,6.0428343E0,3.660914E1,1.9500368E1,2.999355E1,2.4253359E1,2.5009902E0,3.728362E1,4.9487386E0,1.0940956E0],"tree_param":{"num_deleted":"0","num_feature":"4","num_nodes":"15","size_leaf_vector":"1"}},{"base_weights":[-4.2553968E-4,-2.5864336E-1,6.2424797E-1,-4.6270862E-1,-5.918399E-2,7.0281816E-1,4.1386506E-1,-7.663502E-2,-3.8163267E-2,9.56004E-2,-2.0446135E-2,4.7830902E-2,8.656393E-2,1.9249521E-2,6.755359E-2],"categories":[],"categories_nodes":[],"categories_segments":[],"categories_sizes":[],"default_left":[0,0,0,0,0,0,0,0,0,0,0,0,0,0,0],"id":23,"left_children":[1,3,5,7,9,11,13,-1,-1,-1,-1,-1,-1,-1,-1],"loss_changes":[2.4627935E1,4.3695846E0,4.4726562E-1,1.018446E0,8.42158E0,7.220955E-1,7.1420884E-1,0E0,0E0,0E0,0E0,0E0,0E0,0E0,0E0],"parents":[2147483647,0,0,1,1,2,2,3,3,4,4,5,5,6,6],"right_children":[2,4,6,8,10,12,14,-1,-1,-1,-1,-1,-1,-1,-1],"split_conditions":[8E0,1.1952288E3,1.8E1,4E0,2E0,8E0,1.1223151E3,-7.663502E-2,-3.8163267E-2,9.56004E-2,-2.0446135E-2,4.7830902E-2,8.656393E-2,1.9249521E-2,6.755359E-2],"split_indices":[3,0,1,1,1,1,0,0,0,0,0,0,0,0,0],"split_type":[0,0,0,0,0,0,0,0,0,0,0,0,0,0,0],"sum_hessian":[1.5068134E2,1.0702639E2,4.3654945E1,5.2250008E1,5.4776382E1,3.0080389E1,1.3574558E1,9.230007E0,4.302E1,6.1587725E0,4.861761E1,1.4300079E1,1.578031E1,8.293777E0,5.280781E0],"tree_param":{"num_deleted":"0","num_feature":"4","num_nodes":"15","size_leaf_vector":"1"}},{"base_weights":[9.70714E-4,-2.3957102E-1,5.9399474E-1,-4.332373E-2,-4.4254002E-1,6.728612E-1,3.8856548E-1,-2.7638227E-2,3.7137758E-2,-5.739636E-2,-3.559167E-2,4.4935312E-2,8.404249E-2,1.7754797E-2,6.452408E-2],"categories":[],"categories_nodes":[],"categories_segments":[],"categories_sizes":[],"default_left":[0,0,0,0,0,0,0,0,0,0,0,0,0,0,0],"id":24,"left_children":[1,3,5,7,9,11,13,-1,-1,-1,-1,-1,-1,-1,-1],"loss_changes":[2.1119509E1,4.1764727E0,4.3073463E-1,5.3856964E0,3.8396168E-1,7.2736263E-1,6.555655E-1,0E0,0E0,0E0,0E0,0E0,0E0,0E0,0E0],"parents":[2147483647,0,0,1,1,2,2,3,3,4,4,5,5,6,6],"right_children":[2,4,6,8,10,12,14,-1,-1,-1,-1,-1,-1,-1,-1],"split_conditions":[8E0,1E1,1.8E1,1.5105194E3,8.203999E2,8E0,1.1223151E3,-2.7638227E-2,3.7137758E-2,-5.739636E-2,-3.559167E-2,4.4935312E-2,8.404249E-2,1.7754797E-2,6.452408E-2],"split_indices":[3,1,1,0,0,1,0,0,0,0,0,0,0,0,0],"split_type":[0,0,0,0,0,0,0,0,0,0,0,0,0,0,0],"sum_hessian":[1.4605672E2,1.0433321E2,4.1723503E1,5.3661892E1,5.0671326E1,2.850481E1,1.3218691E1,3.456833E1,1.9093565E1,1.7895142E1,3.2776184E1,1.379104E1,1.471377E1,8.183008E0,5.0356827E0],"tree_param":{"num_deleted":"0","num_feature":"4","num_nodes":"15","size_leaf_vector":"1"}},{"base_weights":[1.8599717E-3,-2.2284575E-1,5.644792E-1,-5.0121015E-1,-9.16413E-2,6.0803986E-1,2.4465154E-1,-3.5002466E-2,-9.230397E-2,5.3658623E-2,-1.7355157E-2,3.9777137E-2,6.924012E-2,4.2359557E-2,-3.663021E-2],"categories":[],"categories_nodes":[],"categories_segments":[],"categories_sizes":[],"default_left":[0,0,0,0,0,0,0,0,0,0,0,0,0,0,0],"id":25,"left_children":[1,3,5,7,9,11,13,-1,-1,-1,-1,-1,-1,-1,-1],"loss_changes":[1.8136763E1,3.6984391E0,4.2165852E-1,1.7571688E0,3.7416725E0,3.5185146E-1,8.746692E-1,0E0,0E0,0E0,0E0,0E0,0E0,0E0,0E0],"parents":[2147483647,0,0,1,1,2,2,3,3,4,4,5,5,6,6],"right_children":[2,4,6,8,10,12,14,-1,-1,-1,-1,-1,-1,-1,-1],"split_conditions":[8E0,8.203999E2,2.2E1,6.13201E2,2E0,7E0,1.7474806E3,-3.5002466E-2,-9.230397E-2,5.3658623E-2,-1.7355157E-2,3.9777137E-2,6.924012E-2,4.2359557E-2,-3.663021E-2],"split_indices":[3,0,1,0,1,1,0,0,0,0,0,0,0,0,0],"split_type":[0,0,0,0,0,0,0,0,0,0,0,0,0,0,0],"sum_hessian":[1.4146507E2,1.0152192E2,3.994315E1,3.1618917E1,6.9903E1,3.4361897E1,5.581253E0,2.4623524E1,6.995394E0,7.4226403E0,6.2480362E1,1.1475242E1,2.2886654E1,4.5540648E0,1.0271883E0],"tree_param":{"num_deleted":"0","num_feature":"4","num_nodes":"15","size_leaf_vector":"1"}},{"base_weights":[1.9479746E-3,-2.0586719E-1,5.342143E-1,-2.4690986E-2,-3.9915985E-1,6.1671203E-1,3.2933724E-1,-3.2370433E-2,2.479474E-2,-1.3216915E-2,-4.3866586E-2,3.936802E-2,7.942473E-2,1.1636604E-2,5.998674E-2],"categories":[],"categories_nodes":[],"categories_segments":[],"categories_sizes":[],"default_left":[0,0,0,0,0,0,0,0,0,0,0,0,0,0,0],"id":26,"left_children":[1,3,5,7,9,11,13,-1,-1,-1,-1,-1,-1,-1,-1],"loss_changes":[1.5462122E1,3.5110793E0,4.6030712E-1,4.3979225E0,4.5440817E-1,7.499571E-1,7.030393E-1,0E0,0E0,0E0,0E0,0E0,0E0,0E0,0E0],"parents":[2147483647,0,0,1,1,2,2,3,3,4,4,5,5,6,6],"right_children":[2,4,6,8,10,12,14,-1,-1,-1,-1,-1,-1,-1,-1],"split_conditions":[8E0,1E1,1.8E1,1.295302E3,3.209832E2,8E0,1.1223151E3,-3.2370433E-2,2.479474E-2,-1.3216915E-2,-4.3866586E-2,3.936802E-2,7.942473E-2,1.1636604E-2,5.998674E-2],"split_indices":[3,1,1,0,0,1,0,0,0,0,0,0,0,0,0],"split_type":[0,0,0,0,0,0,0,0,0,0,0,0,0,0,0],"sum_hessian":[1.3779147E2,9.954061E1,3.8250862E1,5.1962807E1,4.7577805E1,2.5836964E1,1.24139E1,2.4693338E1,2.7269468E1,6.6926794E0,4.0885124E1,1.2877214E1,1.2959749E1,7.74606E0,4.667841E0],"tree_param":{"num_deleted":"0","num_feature":"4","num_nodes":"15","size_leaf_vector":"1"}},{"base_weights":[2.7444197E-3,-1.9076052E-1,5.0621784E-1,-4.5766953E-1,-6.9866225E-2,9.2420176E-2,5.395716E-1,-3.0606925E-2,-9.0308E-2,4.8942816E-2,-1.4432825E-2,-7.9633705E-2,7.254135E-2,7.2862916E-2,3.6788534E-2],"categories":[],"categories_nodes":[],"categories_segments":[],"categories_sizes":[],"default_left":[0,0,0,0,0,0,0,0,0,0,0,0,0,0,0],"id":27,"left_children":[1,3,5,7,9,11,13,-1,-1,-1,-1,-1,-1,-1,-1],"loss_changes":[1.3247498E1,3.1378627E0,4.7115326E-1,1.7792974E0,2.9355433E0,2.840666E0,8.5916233E-1,0E0,0E0,0E0,0E0,0E0,0E0,0E0,0E0],"parents":[2147483647,0,0,1,1,2,2,3,3,4,4,5,5,6,6],"right_children":[2,4,6,8,10,12,14,-1,-1,-1,-1,-1,-1,-1,-1],"split_conditions":[8E0,8.203999E2,1.4582133E2,6.13201E2,2E0,2E0,9.489542E2,-3.0606925E-2,-9.0308E-2,4.8942816E-2,-1.4432825E-2,-7.9633705E-2,7.254135E-2,7.2862916E-2,3.6788534E-2],"split_indices":[3,0,0,0,1,2,0,0,0,0,0,0,0,0,0],"split_type":[0,0,0,0,0,0,0,0,0,0,0,0,0,0,0],"sum_hessian":[1.3398575E2,9.7235405E1,3.675034E1,2.9443872E1,6.7791534E1,3.0225444E0,3.3727795E1,2.3225863E1,6.218011E0,7.3102674E0,6.0481266E1,1.1499301E0,1.8726141E0,1.4507956E1,1.921984E1],"tree_param":{"num_deleted":"0","num_feature":"4","num_nodes":"15","size_leaf_vector":"1"}},{"base_weights":[2.731043E-3,-1.758861E-1,4.7724223E-1,-1.0326074E-2,-3.5807055E-1,5.6368005E-1,2.720216E-1,-2.0954546E-2,3.254658E-2,-1.5817858E-2,-4.1871574E-2,3.3443365E-2,7.546028E-2,5.887217E-3,5.546355E-2],"categories":[],"categories_nodes":[],"categories_segments":[],"categories_sizes":[],"default_left":[0,0,0,0,0,0,0,0,0,0,0,0,0,0,0],"id":28,"left_children":[1,3,5,7,9,11,13,-1,-1,-1,-1,-1,-1,-1,-1],"loss_changes":[1.1266288E1,2.909542E0,4.9149036E-1,3.5221102E0,4.908452E-1,8.2631445E-1,7.3273885E-1,0E0,0E0,0E0,0E0,0E0,0E0,0E0,0E0],"parents":[2147483647,0,0,1,1,2,2,3,3,4,4,5,5,6,6],"right_children":[2,4,6,8,10,12,14,-1,-1,-1,-1,-1,-1,-1,-1],"split_conditions":[8E0,1E1,1.8E1,1.5105194E3,1E0,8E0,1.1223151E3,-2.0954546E-2,3.254658E-2,-1.5817858E-2,-4.1871574E-2,3.3443365E-2,7.546028E-2,5.887217E-3,5.546355E-2],"split_indices":[3,1,1,0,2,1,0,0,0,0,0,0,0,0,0],"split_type":[0,0,0,0,0,0,0,0,0,0,0,0,0,0,0],"sum_hessian":[1.3093602E2,9.558494E1,3.5351078E1,5.0630856E1,4.4954082E1,2.3645164E1,1.17059145E1,3.2013676E1,1.8617182E1,1.1303844E1,3.3650238E1,1.1994588E1,1.1650577E1,7.3618603E0,4.3440547E0],"tree_param":{"num_deleted":"0","num_feature":"4","num_nodes":"15","size_leaf_vector":"1"}},{"base_weights":[3.5435264E-3,-1.6255634E-1,4.5090485E-1,-4.160171E-1,-5.1868323E-2,5.824009E-1,3.0744413E-1,-2.639915E-2,-8.8447146E-2,6.0211446E-2,-1.1485429E-2,2.7445326E-2,9.599295E-2,-2.1402167E-2,4.4424698E-2],"categories":[],"categories_nodes":[],"categories_segments":[],"categories_sizes":[],"default_left":[0,0,0,0,0,0,0,0,0,0,0,0,0,0,0],"id":29,"left_children":[1,3,5,7,9,11,13,-1,-1,-1,-1,-1,-1,-1,-1],"loss_changes":[9.630498E0,2.6304352E0,4.8289108E-1,1.8026671E0,2.8264456E0,1.7350435E0,1.4433278E0,0E0,0E0,0E0,0E0,0E0,0E0,0E0,0E0],"parents":[2147483647,0,0,1,1,2,2,3,3,4,4,5,5,6,6],"right_children":[2,4,6,8,10,12,14,-1,-1,-1,-1,-1,-1,-1,-1],"split_conditions":[8E0,8.203999E2,9.489542E2,6.13201E2,9.379176E2,6.0345435E2,1.1223151E3,-2.639915E-2,-8.8447146E-2,6.0211446E-2,-1.1485429E-2,2.7445326E-2,9.599295E-2,-2.1402167E-2,4.4424698E-2],"split_indices":[3,0,0,0,0,0,0,0,0,0,0,0,0,0,0],"split_type":[0,0,0,0,0,0,0,0,0,0,0,0,0,0,0],"sum_hessian":[1.2761836E2,9.352886E1,3.4089504E1,2.7590906E1,6.593796E1,1.6190052E1,1.7899452E1,2.201123E1,5.5796776E0,5.0407176E0,6.0897236E1,9.867868E0,6.3221836E0,3.6025984E0,1.4296854E1],"tree_param":{"num_deleted":"0","num_feature":"4","num_nodes":"15","size_leaf_vector":"1"}},{"base_weights":[3.8887975E-3,-1.4903249E-1,4.247967E-1,4.949095E-3,-3.230456E-1,5.12981E-1,2.244637E-1,-6.1235547E-2,1.0091621E-2,-2.0830536E-2,-4.4980533E-2,2.7960394E-2,7.162375E-2,2.244609E-3,5.066821E-2],"categories":[],"categories_nodes":[],"categories_segments":[],"categories_sizes":[],"default_left":[0,0,0,0,0,0,0,0,0,0,0,0,0,0,0],"id":30,"left_children":[1,3,5,7,9,11,13,-1,-1,-1,-1,-1,-1,-1,-1],"loss_changes":[8.201805E0,2.5065367E0,4.8471832E-1,3.0583575E0,5.4485273E-1,8.8122034E-1,6.816975E-1,0E0,0E0,0E0,0E0,0E0,0E0,0E0,0E0],"parents":[2147483647,0,0,1,1,2,2,3,3,4,4,5,5,6,6],"right_children":[2,4,6,8,10,12,14,-1,-1,-1,-1,-1,-1,-1,-1],"split_conditions":[8E0,1E1,1.8E1,3.4904456E2,1.8E1,8E0,1.1223151E3,-6.1235547E-2,1.0091621E-2,-2.0830536E-2,-4.4980533E-2,2.7960394E-2,7.162375E-2,2.244609E-3,5.066821E-2],"split_indices":[3,1,1,0,1,1,0,0,0,0,0,0,0,0,0],"split_type":[0,0,0,0,0,0,0,0,0,0,0,0,0,0,0],"sum_hessian":[1.2544135E2,9.248594E1,3.2955414E1,4.9582603E1,4.290334E1,2.179907E1,1.1156342E1,5.9471183E0,4.3635483E1,2.3906755E1,1.8996584E1,1.1253517E1,1.0545553E1,7.1312118E0,4.0251303E0],"tree_param":{"num_deleted":"0","num_feature":"4","num_nodes":"15","size_leaf_vector":"1"}},{"base_weights":[3.840794E-3,-1.3772738E-1,4.0022784E-1,-2.3042898E-1,1.12795636E-1,5.3953034E-1,2.517495E-1,-1.55043695E-2,-4.9465615E-2,6.861834E-2,-1.29767E-2,2.3317209E-2,9.356778E-2,4.0686276E-2,-1.8066868E-2],"categories":[],"categories_nodes":[],"categories_segments":[],"categories_sizes":[],"default_left":[0,0,0,0,0,0,0,0,0,0,0,0,0,0,0],"id":31,"left_children":[1,3,5,7,9,11,13,-1,-1,-1,-1,-1,-1,-1,-1],"loss_changes":[7.014708E0,2.1655679E0,5.445256E-1,1.2693021E0,3.6432E0,1.7353344E0,1.2672322E0,0E0,0E0,0E0,0E0,0E0,0E0,0E0,0E0],"parents":[2147483647,0,0,1,1,2,2,3,3,4,4,5,5,6,6],"right_children":[2,4,6,8,10,12,14,-1,-1,-1,-1,-1,-1,-1,-1],"split_conditions":[8E0,1.610173E3,9.489542E2,1.8E1,1E0,6.0345435E2,2E1,-1.55043695E-2,-4.9465615E-2,6.861834E-2,-1.29767E-2,2.3317209E-2,9.356778E-2,4.0686276E-2,-1.8066868E-2],"split_indices":[3,0,0,1,2,0,1,0,0,0,0,0,0,0,0],"split_type":[0,0,0,0,0,0,0,0,0,0,0,0,0,0,0],"sum_hessian":[1.23021866E2,9.112828E1,3.1893587E1,6.6573975E1,2.4554308E1,1.5096404E1,1.6797184E1,5.3030807E1,1.3543165E1,6.755726E0,1.7798582E1,9.408781E0,5.687623E0,1.2406081E1,4.3911023E0],"tree_param":{"num_deleted":"0","num_feature":"4","num_nodes":"15","size_leaf_vector":"1"}},{"base_weights":[4.6504405E-3,-1.2592958E-1,3.7638175E-1,-3.6013988E-1,-2.9631028E-2,5.133236E-1,2.3308444E-1,-2.0223124E-2,-8.649203E-2,5.659948E-2,-8.999391E-3,2.1593807E-2,9.171926E-2,-1.380757E-2,4.1794173E-2],"categories":[],"categories_nodes":[],"categories_segments":[],"categories_sizes":[],"default_left":[0,0,0,0,0,0,0,0,0,0,0,0,0,0,0],"id":32,"left_children":[1,3,5,7,9,11,13,-1,-1,-1,-1,-1,-1,-1,-1],"loss_changes":[5.963336E0,2.040457E0,5.069933E-1,1.9300287E0,2.4071527E0,1.6632128E0,1.2540414E0,0E0,0E0,0E0,0E0,0E0,0E0,0E0,0E0],"parents":[2147483647,0,0,1,1,2,2,3,3,4,4,5,5,6,6],"right_children":[2,4,6,8,10,12,14,-1,-1,-1,-1,-1,-1,-1,-1],"split_conditions":[8E0,8.203999E2,9.489542E2,6.13201E2,9.379176E2,6.0345435E2,8E0,-2.0223124E-2,-8.649203E-2,5.659948E-2,-8.999391E-3,2.1593807E-2,9.171926E-2,-1.380757E-2,4.1794173E-2],"split_indices":[3,0,0,0,0,0,1,0,0,0,0,0,0,0,0],"split_type":[0,0,0,0,0,0,0,0,0,0,0,0,0,0,0],"sum_hessian":[1.2087589E2,8.9942535E1,3.0933355E1,2.5407774E1,6.453476E1,1.4497047E1,1.6436308E1,2.0420374E1,4.9874E0,5.1675777E0,5.9367184E1,9.233046E0,5.2640014E0,5.548661E0,1.0887646E1],"tree_param":{"num_deleted":"0","num_feature":"4","num_nodes":"15","size_leaf_vector":"1"}},{"base_weights":[4.9153967E-3,-1.15282826E-1,3.5354012E-1,2.2952152E-2,-2.780054E-1,4.443411E-1,1.5928058E-1,-5.7423946E-2,1.0947376E-2,-1.6101884E-2,-4.2790003E-2,2.1611733E-2,6.58641E-2,-5.0051785E-3,4.6439834E-2],"categories":[],"categories_nodes":[],"categories_segments":[],"categories_sizes":[],"default_left":[0,0,0,0,0,0,0,0,0,0,0,0,0,0,0],"id":33,"left_children":[1,3,5,7,9,11,13,-1,-1,-1,-1,-1,-1,-1,-1],"loss_changes":[5.0796976E0,2.0347416E0,4.773698E-1,2.62978E0,6.5873456E-1,8.660674E-1,7.5504005E-1,0E0,0E0,0E0,0E0,0E0,0E0,0E0,0E0],"parents":[2147483647,0,0,1,1,2,2,3,3,4,4,5,5,6,6],"right_children":[2,4,6,8,10,12,14,-1,-1,-1,-1,-1,-1,-1,-1],"split_conditions":[8E0,1E1,1.8E1,3.4904456E2,1.3133008E3,8E0,1.1223151E3,-5.7423946E-2,1.0947376E-2,-1.6101884E-2,-4.2790003E-2,2.1611733E-2,6.58641E-2,-5.0051785E-3,4.6439834E-2],"split_indices":[3,1,1,0,0,1,0,0,0,0,0,0,0,0,0],"split_type":[0,0,0,0,0,0,0,0,0,0,0,0,0,0,0],"sum_hessian":[1.1924942E2,8.917362E1,3.0075802E1,4.867906E1,4.049456E1,1.9618397E1,1.0457406E1,5.446834E0,4.3232227E1,2.390888E1,1.6585678E1,1.0473197E1,9.1452E0,6.698037E0,3.759369E0],"tree_param":{"num_deleted":"0","num_feature":"4","num_nodes":"15","size_leaf_vector":"1"}},{"base_weights":[4.6713203E-3,-1.0647379E-1,3.31793E-1,-2.6388964E-1,2.5718704E-2,4.7529647E-1,1.8511108E-1,-6.82412E-2,-1.5332267E-2,8.271122E-2,-9.365673E-3,1.8258562E-2,8.951518E-2,-3.0293152E-2,3.2998763E-2],"categories":[],"categories_nodes":[],"categories_segments":[],"categories_sizes":[],"default_left":[0,0,0,0,0,0,0,0,0,0,0,0,0,0,0],"id":34,"left_children":[1,3,5,7,9,11,13,-1,-1,-1,-1,-1,-1,-1,-1],"loss_changes":[4.338483E0,1.8608277E0,5.4892874E-1,1.7814114E0,4.7976346E0,1.637824E0,1.2737663E0,0E0,0E0,0E0,0E0,0E0,0E0,0E0,0E0],"parents":[2147483647,0,0,1,1,2,2,3,3,4,4,5,5,6,6],"right_children":[2,4,6,8,10,12,14,-1,-1,-1,-1,-1,-1,-1,-1],"split_conditions":[8E0,1.1952288E3,9.489542E2,4E0,2E0,6.0345435E2,1.1223151E3,-6.82412E-2,-1.5332267E-2,8.271122E-2,-9.365673E-3,1.8258562E-2,8.951518E-2,-3.0293152E-2,3.2998763E-2],"split_indices":[3,0,0,1,1,0,0,0,0,0,0,0,0,0,0],"split_type":[0,0,0,0,0,0,0,0,0,0,0,0,0,0,0],"sum_hessian":[1.17355194E2,8.80972E1,2.9257996E1,3.9757458E1,4.833974E1,1.3656803E1,1.56011915E1,7.2275443E0,3.2529915E1,5.4984927E0,4.2841248E1,8.892258E0,4.764545E0,3.3214223E0,1.227977E1],"tree_param":{"num_deleted":"0","num_feature":"4","num_nodes":"15","size_leaf_vector":"1"}},{"base_weights":[5.2102585E-3,-9.740529E-2,3.1061107E-1,-2.6901178E-2,-3.7230182E-1,4.5113406E-1,1.6976677E-1,-1.1626769E-2,3.6612775E-2,2.3864133E-2,-4.37938E-2,1.6853774E-2,8.7730065E-2,3.3151746E-2,-2.4446031E-2],"categories":[],"categories_nodes":[],"categories_segments":[],"categories_sizes":[],"default_left":[0,0,0,0,0,0,0,0,0,0,0,0,0,0,0],"id":35,"left_children":[1,3,5,7,9,11,13,-1,-1,-1,-1,-1,-1,-1,-1],"loss_changes":[3.6791677E0,1.6938431E0,5.0770235E-1,2.5379374E0,8.20977E-1,1.5592041E0,1.1763417E0,0E0,0E0,0E0,0E0,0E0,0E0,0E0,0E0],"parents":[2147483647,0,0,1,1,2,2,3,3,4,4,5,5,6,6],"right_children":[2,4,6,8,10,12,14,-1,-1,-1,-1,-1,-1,-1,-1],"split_conditions":[8E0,1.8E1,9.489542E2,1.7436953E3,1.6417833E2,6.0345435E2,2E1,-1.1626769E-2,3.6612775E-2,2.3864133E-2,-4.37938E-2,1.6853774E-2,8.7730065E-2,3.3151746E-2,-2.4446031E-2],"split_indices":[3,1,0,0,0,0,1,0,0,0,0,0,0,0,0],"split_type":[0,0,0,0,0,0,0,0,0,0,0,0,0,0,0],"sum_hessian":[1.1543406E2,8.691232E1,2.8521734E1,7.00453E1,1.6867018E1,1.317436E1,1.5347375E1,5.7642735E1,1.2402571E1,1.3805945E0,1.5486424E1,8.760583E0,4.413777E0,1.1181001E1,4.166374E0],"tree_param":{"num_deleted":"0","num_feature":"4","num_nodes":"15","size_leaf_vector":"1"}},{"base_weights":[5.819179E-3,-8.8758335E-2,2.908083E-1,3.1978108E-2,-2.3507565E-1,1.3288571E-1,4.0585947E-1,-5.2957125E-2,1.0768103E-2,-1.1761991E-2,-3.889611E-2,-9.199523E-2,2.912495E-2,5.4227084E-2,6.2894425E-3],"categories":[],"categories_nodes":[],"categories_segments":[],"categories_sizes":[],"default_left":[0,0,0,0,0,0,0,0,0,0,0,0,0,0,0],"id":36,"left_children":[1,3,5,7,9,11,13,-1,-1,-1,-1,-1,-1,-1,-1],"loss_changes":[3.1204605E0,1.543946E0,4.70109E-1,2.1201487E0,6.671202E-1,2.5426662E0,7.2376513E-1,0E0,0E0,0E0,0E0,0E0,0E0,0E0,0E0],"parents":[2147483647,0,0,1,1,2,2,3,3,4,4,5,5,6,6],"right_children":[2,4,6,8,10,12,14,-1,-1,-1,-1,-1,-1,-1,-1],"split_conditions":[8E0,1E1,2E0,3.4904456E2,1.3133008E3,1.4582133E2,1.9E1,-5.2957125E-2,1.0768103E-2,-1.1761991E-2,-3.889611E-2,-9.199523E-2,2.912495E-2,5.4227084E-2,6.2894425E-3],"split_indices":[3,1,2,0,0,0,1,0,0,0,0,0,0,0,0],"split_type":[0,0,0,0,0,0,0,0,0,0,0,0,0,0,0],"sum_hessian":[1.138141E2,8.5971756E1,2.784234E1,4.7531612E1,3.8440144E1,1.26430855E1,1.5199255E1,4.9343314E0,4.2597282E1,2.2801123E1,1.5639022E1,1.0242867E0,1.1618798E1,1.0458394E1,4.7408614E0],"tree_param":{"num_deleted":"0","num_feature":"4","num_nodes":"15","size_leaf_vector":"1"}},{"base_weights":[4.483673E-3,-8.197012E-2,2.6895943E-1,-1.6303122E-1,1.3002561E-1,3.912637E-1,1.0342474E-1,4.4785332E-2,-1.8755462E-2,6.723492E-2,-1.0378369E-2,6.701235E-2,1.1679857E-2,-8.312911E-2,2.5711099E-2],"categories":[],"categories_nodes":[],"categories_segments":[],"categories_sizes":[],"default_left":[0,0,0,0,0,0,0,0,0,0,0,0,0,0,0],"id":37,"left_children":[1,3,5,7,9,11,13,-1,-1,-1,-1,-1,-1,-1,-1],"loss_changes":[2.6116977E0,1.5011889E0,5.29155E-1,1.023972E0,3.1609683E0,1.1326513E0,2.1263688E0,0E0,0E0,0E0,0E0,0E0,0E0,0E0,0E0],"parents":[2147483647,0,0,1,1,2,2,3,3,4,4,5,5,6,6],"right_children":[2,4,6,8,10,12,14,-1,-1,-1,-1,-1,-1,-1,-1],"split_conditions":[8E0,1.610173E3,1.0830514E3,6.3335087E1,1E0,1.3E1,1.1332429E3,4.4785332E-2,-1.8755462E-2,6.723492E-2,-1.0378369E-2,6.701235E-2,1.1679857E-2,-8.312911E-2,2.5711099E-2],"split_indices":[3,0,0,0,2,1,0,0,0,0,0,0,0,0,0],"split_type":[0,0,0,0,0,0,0,0,0,0,0,0,0,0,0],"sum_hessian":[1.1225864E2,8.512305E1,2.7135588E1,6.1744637E1,2.3378412E1,1.4821315E1,1.2314273E1,1.7167841E0,6.0027855E1,6.4776936E0,1.6900719E1,6.6367435E0,8.184571E0,1.1162504E0,1.1198022E1],"tree_param":{"num_deleted":"0","num_feature":"4","num_nodes":"15","size_leaf_vector":"1"}},{"base_weights":[5.070628E-3,-7.3607564E-2,2.4897769E-1,-2.793662E-1,5.6247553E-3,1.9559574E-1,6.7721814E-2,-1.1108912E-2,-8.395861E-2,5.1814485E-2,-6.4278147E-3,2.840806E-2,-3.03107E-2],"categories":[],"categories_nodes":[],"categories_segments":[],"categories_sizes":[],"default_left":[0,0,0,0,0,0,0,0,0,0,0,0,0],"id":38,"left_children":[1,3,5,7,9,11,-1,-1,-1,-1,-1,-1,-1],"loss_changes":[2.165486E0,1.3933494E0,4.9660158E-1,2.146099E0,2.2766469E0,1.2278562E0,0E0,0E0,0E0,0E0,0E0,0E0,0E0],"parents":[2147483647,0,0,1,1,2,2,3,3,4,4,5,5],"right_children":[2,4,6,8,10,12,-1,-1,-1,-1,-1,-1,-1],"split_conditions":[8E0,8.203999E2,1.8591288E3,6.13201E2,9.857436E2,1.5599109E3,6.7721814E-2,-1.1108912E-2,-8.395861E-2,5.1814485E-2,-6.4278147E-3,2.840806E-2,-3.03107E-2],"split_indices":[3,0,0,0,0,0,0,0,0,0,0,0,0],"split_type":[0,0,0,0,0,0,0,0,0,0,0,0,0],"sum_hessian":[1.1088852E2,8.437085E1,2.6517668E1,2.2754282E1,6.1616566E1,2.4873789E1,1.6438783E0,1.841972E1,4.334562E0,6.6256566E0,5.499091E1,2.1491001E1,3.3827887E0],"tree_param":{"num_deleted":"0","num_feature":"4","num_nodes":"13","size_leaf_vector":"1"}},{"base_weights":[4.639285E-3,-6.7405365E-2,2.3119555E-1,-2.08549E-1,4.6798028E-2,3.7402132E-1,9.5875345E-2,-8.228357E-3,-6.0766257E-2,7.773932E-2,-6.263815E-3,8.798978E-3,8.40227E-2,-2.8182438E-2,3.0344E-2],"categories":[],"categories_nodes":[],"categories_segments":[],"categories_sizes":[],"default_left":[0,0,0,0,0,0,0,0,0,0,0,0,0,0,0],"id":39,"left_children":[1,3,5,7,9,11,13,-1,-1,-1,-1,-1,-1,-1,-1],"loss_changes":[1.827262E0,1.3797047E0,4.8609018E-1,1.8747785E0,3.8700418E0,1.6321303E0,1.2780961E0,0E0,0E0,0E0,0E0,0E0,0E0,0E0,0E0],"parents":[2147483647,0,0,1,1,2,2,3,3,4,4,5,5,6,6],"right_children":[2,4,6,8,10,12,14,-1,-1,-1,-1,-1,-1,-1,-1],"split_conditions":[8E0,1.1952288E3,9.489542E2,9.857436E2,2E0,6.0345435E2,8E0,-8.228357E-3,-6.0766257E-2,7.773932E-2,-6.263815E-3,8.798978E-3,8.40227E-2,-2.8182438E-2,3.0344E-2],"split_indices":[3,0,0,0,1,0,1,0,0,0,0,0,0,0,0],"split_type":[0,0,0,0,0,0,0,0,0,0,0,0,0,0,0],"sum_hessian":[1.0999496E2,8.398902E1,2.600594E1,3.7194424E1,4.6794598E1,1.1793907E1,1.4212031E1,2.9171696E1,8.022728E0,5.3010697E0,4.1493526E1,8.046108E0,3.7477994E0,4.91343E0,9.298601E0],"tree_param":{"num_deleted":"0","num_feature":"4","num_nodes":"15","size_leaf_vector":"1"}},{"base_weights":[5.1671164E-3,-6.1384562E-2,2.1576671E-1,9.767562E-4,-3.158212E-1,1.6266787E-1,6.5514795E-2,-7.824285E-3,3.36502E-2,2.3772378E-2,-3.8187653E-2,2.4675963E-2,-2.8228922E-2],"categories":[],"categories_nodes":[],"categories_segments":[],"categories_sizes":[],"default_left":[0,0,0,0,0,0,0,0,0,0,0,0,0],"id":40,"left_children":[1,3,5,7,9,11,-1,-1,-1,-1,-1,-1,-1],"loss_changes":[1.5506759E0,1.3352189E0,5.131322E-1,1.8488519E0,6.964452E-1,1.006145E0,0E0,0E0,0E0,0E0,0E0,0E0,0E0],"parents":[2147483647,0,0,1,1,2,2,3,3,4,4,5,5],"right_children":[2,4,6,8,10,12,-1,-1,-1,-1,-1,-1,-1],"split_conditions":[8E0,1.8E1,1.8591288E3,1.7436953E3,1.6417833E2,1.5599109E3,6.5514795E-2,-7.824285E-3,3.36502E-2,2.3772378E-2,-3.8187653E-2,2.4675963E-2,-2.8228922E-2],"split_indices":[3,1,0,0,0,0,0,0,0,0,0,0,0],"split_type":[0,0,0,0,0,0,0,0,0,0,0,0,0],"sum_hessian":[1.0869304E2,8.3131226E1,2.5561813E1,6.7567E1,1.5564219E1,2.4028242E1,1.533572E0,5.52815E1,1.2285502E1,1.3822318E0,1.4181988E1,2.0583607E1,3.4446342E0],"tree_param":{"num_deleted":"0","num_feature":"4","num_nodes":"13","size_leaf_vector":"1"}},{"base_weights":[5.3457813E-3,5.9828883E-1,-1.5697833E-2,7.567387E-2,2.1630289E-2,-8.4971946E-1,2.5224362E-2,-1.2260961E-1,-1.672667E-2,9.378632E-2,6.750369E-4],"categories":[],"categories_nodes":[],"categories_segments":[],"categories_sizes":[],"default_left":[0,0,0,0,0,0,0,0,0,0,0],"id":41,"left_children":[1,3,5,-1,-1,7,9,-1,-1,-1,-1],"loss_changes":[1.3644502E0,6.314409E-2,3.63413E0,0E0,0E0,1.0739744E0,1.7112302E0,0E0,0E0,0E0,0E0],"parents":[2147483647,0,0,1,1,2,2,5,5,6,6],"right_children":[2,4,6,-1,-1,8,10,-1,-1,-1,-1],"split_conditions":[6.3335087E1,6E0,1.5265079E2,7.567387E-2,2.1630289E-2,2E0,1.7049924E2,-1.2260961E-1,-1.672667E-2,9.378632E-2,6.750369E-4],"split_indices":[0,3,0,0,0,2,0,0,0,0,0],"split_type":[0,0,0,0,0,0,0,0,0,0,0],"sum_hessian":[1.0759871E2,2.7476497E0,1.0485106E2,1.2486423E0,1.4990075E0,3.9796133E0,1.00871445E2,2.0515628E0,1.9280505E0,1.0139577E0,9.985748E1],"tree_param":{"num_deleted":"0","num_feature":"4","num_nodes":"11","size_leaf_vector":"1"}},{"base_weights":[5.2039046E-3,-5.6105077E-2,2.007319E-1,-2.4758738E-1,1.5750859E-2,4.1364796E-2,3.2362196E-1,-8.511991E-3,-8.209718E-2,5.821398E-2,-3.8991321E-3,-5.9106655E-2,3.2533176E-2,6.551869E-3,5.4639008E-2],"categories":[],"categories_nodes":[],"categories_segments":[],"categories_sizes":[],"default_left":[0,0,0,0,0,0,0,0,0,0,0,0,0,0,0],"id":42,"left_children":[1,3,5,7,9,11,13,-1,-1,-1,-1,-1,-1,-1,-1],"loss_changes":[1.3134522E0,1.1525007E0,4.9872744E-1,2.0576594E0,1.9338919E0,2.4427814E0,8.0466485E-1,0E0,0E0,0E0,0E0,0E0,0E0,0E0,0E0],"parents":[2147483647,0,0,1,1,2,2,3,3,4,4,5,5,6,6],"right_children":[2,4,6,8,10,12,14,-1,-1,-1,-1,-1,-1,-1,-1],"split_conditions":[8E0,8.203999E2,2E0,6.13201E2,9.2014105E2,6E0,9E0,-8.511991E-3,-8.209718E-2,5.821398E-2,-3.8991321E-3,-5.9106655E-2,3.2533176E-2,6.551869E-3,5.4639008E-2],"split_indices":[3,0,2,0,0,1,3,0,0,0,0,0,0,0,0],"split_type":[0,0,0,0,0,0,0,0,0,0,0,0,0,0,0],"sum_hessian":[1.0762789E2,8.2479126E1,2.5148767E1,2.183839E1,6.0640736E1,1.1531286E1,1.3617481E1,1.7911617E1,3.9267735E0,4.4953604E0,5.6145374E1,3.238117E0,8.293169E0,6.907933E0,6.7095485E0],"tree_param":{"num_deleted":"0","num_feature":"4","num_nodes":"15","size_leaf_vector":"1"}},{"base_weights":[4.675626E-3,6.191042E-2,-1.8748501E-1,-1.3798763E-2,4.027682E-1,-2.9691368E-1,2.9477665E-1,1.0079357E-2,-2.1291679E-2,1.15144394E-1,7.784507E-3,3.2057732E-2,-3.8246807E-2,-3.57967E-2,7.609298E-2],"categories":[],"categories_nodes":[],"categories_segments":[],"categories_sizes":[],"default_left":[0,0,0,0,0,0,0,0,0,0,0,0,0,0,0],"id":43,"left_children":[1,3,5,7,9,11,13,-1,-1,-1,-1,-1,-1,-1,-1],"loss_changes":[1.1984501E0,2.1706445E0,1.4075596E0,1.6099416E0,3.627721E0,1.2259724E0,1.8326782E0,0E0,0E0,0E0,0E0,0E0,0E0,0E0,0E0],"parents":[2147483647,0,0,1,1,2,2,3,3,4,4,5,5,6,6],"right_children":[2,4,6,8,10,12,14,-1,-1,-1,-1,-1,-1,-1,-1],"split_conditions":[1.8E1,1.7436953E3,9E0,1.3304083E3,1E0,1.83321E2,2E0,1.0079357E-2,-2.1291679E-2,1.15144394E-1,7.784507E-3,3.2057732E-2,-3.8246807E-2,-3.57967E-2,7.609298E-2],"split_indices":[1,0,3,0,2,0,2,0,0,0,0,0,0,0,0],"split_type":[0,0,0,0,0,0,0,0,0,0,0,0,0,0,0],"sum_hessian":[1.0691173E2,8.289838E1,2.4013353E1,6.8617096E1,1.428128E1,1.9885517E1,4.1278377E0,4.386602E1,2.4751078E1,3.5523486E0,1.0728931E1,2.085597E0,1.779992E1,1.8164237E0,2.311414E0],"tree_param":{"num_deleted":"0","num_feature":"4","num_nodes":"15","size_leaf_vector":"1"}},{"base_weights":[5.499849E-3,5.383842E-1,-1.3906856E-2,7.2475545E-2,1.9935636E-2,-8.186322E-1,2.5103949E-2,-1.178986E-1,-1.6883606E-2,8.746015E-2,7.735313E-4],"categories":[],"categories_nodes":[],"categories_segments":[],"categories_sizes":[],"default_left":[0,0,0,0,0,0,0,0,0,0,0],"id":44,"left_children":[1,3,5,-1,-1,7,9,-1,-1,-1,-1],"loss_changes":[1.1219292E0,9.6366644E-2,3.3153043E0,0E0,0E0,9.4416404E-1,1.4844778E0,0E0,0E0,0E0,0E0],"parents":[2147483647,0,0,1,1,2,2,5,5,6,6],"right_children":[2,4,6,-1,-1,8,10,-1,-1,-1,-1],"split_conditions":[6.3335087E1,1.1E1,1.5265079E2,7.2475545E-2,1.9935636E-2,2E0,1.7049924E2,-1.178986E-1,-1.6883606E-2,8.746015E-2,7.735313E-4],"split_indices":[0,1,0,0,0,2,0,0,0,0,0],"split_type":[0,0,0,0,0,0,0,0,0,0,0],"sum_hessian":[1.0676374E2,2.8118415E0,1.039519E2,1.0802552E0,1.7315862E0,3.882287E0,1.0006961E2,1.9734747E0,1.9088124E0,1.0161197E0,9.905349E1],"tree_param":{"num_deleted":"0","num_feature":"4","num_nodes":"11","size_leaf_vector":"1"}},{"base_weights":[5.314853E-3,-5.0255984E-2,1.8477172E-1,-1.8059076E-1,5.3212892E-2,1.3376401E-1,6.2560774E-2,-6.401784E-2,-6.253606E-3,2.9286563E-2,-2.3838192E-2,2.9969025E-2,-8.831757E-3],"categories":[],"categories_nodes":[],"categories_segments":[],"categories_sizes":[],"default_left":[0,0,0,0,0,0,0,0,0,0,0,0,0],"id":45,"left_children":[1,3,5,7,9,11,-1,-1,-1,-1,-1,-1,-1],"loss_changes":[1.0841732E0,1.1300687E0,4.9417984E-1,1.9672823E0,3.360451E0,9.221089E-1,0E0,0E0,0E0,0E0,0E0,0E0,0E0],"parents":[2147483647,0,0,1,1,2,2,3,3,4,4,5,5],"right_children":[2,4,6,8,10,12,-1,-1,-1,-1,-1,-1,-1],"split_conditions":[8E0,1.1952288E3,1.8591288E3,4E0,5E0,1.0830514E3,6.2560774E-2,-6.401784E-2,-6.253606E-3,2.9286563E-2,-2.3838192E-2,2.9969025E-2,-8.831757E-3],"split_indices":[3,0,0,1,3,0,0,0,0,0,0,0,0],"split_type":[0,0,0,0,0,0,0,0,0,0,0,0,0],"sum_hessian":[1.0678441E2,8.2085625E1,2.4698784E1,3.5996807E1,4.6088814E1,2.3305601E1,1.3931822E0,6.4529014E0,2.9543907E1,2.5295153E1,2.0793663E1,1.3139261E1,1.016634E1],"tree_param":{"num_deleted":"0","num_feature":"4","num_nodes":"13","size_leaf_vector":"1"}},{"base_weights":[4.8846253E-3,5.832027E-2,-1.7775367E-1,-1.0263247E-2,3.6349714E-1,-2.7752292E-1,2.6870987E-1,9.853988E-3,-1.9800015E-2,1.0363843E-1,6.6513917E-3,-2.3681568E-3,-5.0282825E-2,-3.315277E-2,7.339341E-2],"categories":[],"categories_nodes":[],"categories_segments":[],"categories_sizes":[],"default_left":[0,0,0,0,0,0,0,0,0,0,0,0,0,0,0],"id":46,"left_children":[1,3,5,7,9,11,13,-1,-1,-1,-1,-1,-1,-1,-1],"loss_changes":[1.0547411E0,1.7522902E0,1.1645218E0,1.4327209E0,2.999997E0,1.1600666E0,1.6332325E0,0E0,0E0,0E0,0E0,0E0,0E0,0E0,0E0],"parents":[2147483647,0,0,1,1,2,2,3,3,4,4,5,5,6,6],"right_children":[2,4,6,8,10,12,14,-1,-1,-1,-1,-1,-1,-1,-1],"split_conditions":[1.8E1,1.7436953E3,9E0,1.3304083E3,1E0,2E0,2E0,9.853988E-3,-1.9800015E-2,1.0363843E-1,6.6513917E-3,-2.3681568E-3,-5.0282825E-2,-3.315277E-2,7.339341E-2],"split_indices":[1,0,3,0,2,2,2,0,0,0,0,0,0,0,0],"split_type":[0,0,0,0,0,0,0,0,0,0,0,0,0,0,0],"sum_hessian":[1.06012215E2,8.2542816E1,2.3469397E1,6.8185585E1,1.4357227E1,1.9492E1,3.9773953E0,4.346849E1,2.4717096E1,3.6339436E0,1.0723284E1,9.685214E0,9.8067875E0,1.862176E0,2.1152194E0],"tree_param":{"num_deleted":"0","num_feature":"4","num_nodes":"15","size_leaf_vector":"1"}},{"base_weights":[5.157728E-3,5.1300615E-1,-1.3368145E-2,9.633498E-2,1.3524572E-4,-7.9104334E-1,2.3410581E-2,-1.13935225E-1,-1.6004376E-2,8.29992E-2,6.834779E-4],"categories":[],"categories_nodes":[],"categories_segments":[],"categories_sizes":[],"default_left":[0,0,0,0,0,0,0,0,0,0,0],"id":47,"left_children":[1,3,5,-1,-1,7,9,-1,-1,-1,-1],"loss_changes":[1.0131791E0,8.7196624E-1,2.9979992E0,0E0,0E0,8.5784936E-1,1.3371547E0,0E0,0E0,0E0,0E0],"parents":[2147483647,0,0,1,1,2,2,5,5,6,6],"right_children":[2,4,6,-1,-1,8,10,-1,-1,-1,-1],"split_conditions":[6.3335087E1,5E0,1.5265079E2,9.633498E-2,1.3524572E-4,2E0,1.7049924E2,-1.13935225E-1,-1.6004376E-2,8.29992E-2,6.834779E-4],"split_indices":[0,3,0,0,0,2,0,0,0,0,0],"split_type":[0,0,0,0,0,0,0,0,0,0,0],"sum_hessian":[1.059606E2,2.7899015E0,1.031707E2,1.0143139E0,1.7755876E0,3.7328353E0,9.943787E1,1.8860909E0,1.8467444E0,1.0142002E0,9.842367E1],"tree_param":{"num_deleted":"0","num_feature":"4","num_nodes":"11","size_leaf_vector":"1"}},{"base_weights":[5.028493E-3,-4.6726037E-2,1.7345148E-1,5.3054903E-2,-1.730589E-1,2.7219483E-1,-8.705781E-3,-4.8162933E-2,1.204051E-2,-3.9319335E-3,-3.4917075E-2,3.680352E-3,5.2778374E-2,-2.395772E-2,3.6274847E-2],"categories":[],"categories_nodes":[],"categories_segments":[],"categories_sizes":[],"default_left":[0,0,0,0,0,0,0,0,0,0,0,0,0,0,0],"id":48,"left_children":[1,3,5,7,9,11,13,-1,-1,-1,-1,-1,-1,-1,-1],"loss_changes":[9.412184E-1,1.0513437E0,4.5878685E-1,1.7489525E0,8.510884E-1,9.7243726E-1,9.3496567E-1,0E0,0E0,0E0,0E0,0E0,0E0,0E0,0E0],"parents":[2147483647,0,0,1,1,2,2,3,3,4,4,5,5,6,6],"right_children":[2,4,6,8,10,12,14,-1,-1,-1,-1,-1,-1,-1,-1],"split_conditions":[8E0,1E1,1.8E1,3.4904456E2,1.3133008E3,8E0,1.1223151E3,-4.8162933E-2,1.204051E-2,-3.9319335E-3,-3.4917075E-2,3.680352E-3,5.2778374E-2,-2.395772E-2,3.6274847E-2],"split_indices":[3,1,1,0,0,1,0,0,0,0,0,0,0,0,0],"split_type":[0,0,0,0,0,0,0,0,0,0,0,0,0,0,0],"sum_hessian":[1.06049545E2,8.167445E1,2.4375092E1,4.5956707E1,3.5717747E1,1.5486128E1,8.888965E0,4.4530907E0,4.1503616E1,2.0996353E1,1.47213955E1,8.657121E0,6.8290067E0,5.7007713E0,3.1881936E0],"tree_param":{"num_deleted":"0","num_feature":"4","num_nodes":"15","size_leaf_vector":"1"}},{"base_weights":[4.482301E-3,-9.240184E-3,6.4831585E-2,4.8723444E-1,-2.7790627E-2,8.928635E-2,2.0945161E-4,-7.5037256E-2,6.370517E-4],"categories":[],"categories_nodes":[],"categories_segments":[],"categories_sizes":[],"default_left":[0,0,0,0,0,0,0,0,0],"id":49,"left_children":[1,3,-1,5,7,-1,-1,-1,-1],"loss_changes":[9.4402665E-1,9.800473E-1,0E0,7.525815E-1,2.5252657E0,0E0,0E0,0E0,0E0],"parents":[2147483647,0,0,1,1,3,3,4,4],"right_children":[2,4,-1,6,8,-1,-1,-1,-1],"split_conditions":[1.983628E3,6.3335087E1,6.4831585E-2,5E0,1.5265079E2,8.928635E-2,2.0945161E-4,-7.5037256E-2,6.370517E-4],"split_indices":[0,0,0,3,0,0,0,0,0],"split_type":[0,0,0,0,0,0,0,0,0],"sum_hessian":[1.05172775E2,1.03943016E2,1.2297636E0,2.833852E0,1.0110916E2,1.0856814E0,1.7481707E0,3.6178637E0,9.7491295E1],"tree_param":{"num_deleted":"0","num_feature":"4","num_nodes":"9","size_leaf_vector":"1"}}]},"name":"gbtree"},"learner_model_param":{"base_score":"[2.73E-1]","boost_from_average":"1","num_class":"0","num_feature":"4","num_target":"1"},"objective":{"name":"binary:logistic","reg_loss_param":{"scale_pos_weight":"1"}}},"version":[3,2,0]}